{"h1Weight": [[-1.4176619389379668, -24.891855453250667, -4.456107094005094, -7.171545384832999, -16.137769297593092, -11.63558500741375, -6.632945188450149, -20.57819083204901, -4.041475738792237, -18.97539024595822, -9.496300536614276, -1.9048516106473838, -1.6396763797156038, -10.069709988095214, -16.4326047067295, -3.3304455624450893, -23.37373786884378, -4.135995430075287, -3.225249493288247, -25.13379889008784, -2.4826140284444005, -1.891595969254051, -25.405750425580063, -1.981961052153728, -5.564583771523665, -17.457445043195094, -7.150389700256927], [2.0541694464943263, 25.842846968714582, 1.1721176720799271, 5.688668940030363, 16.711967325721655, 9.34309916679722, 5.526580154809894, 21.45353902735242, 4.335668488341606, 19.8034439257807, 10.907992863050522, 0.5187512745160001, 3.613834020141139, 9.467839532701994, 19.37694621075972, 3.9494364830958206, 23.991289373460305, 5.772280980334433, 0.3032235170968385, 25.328697703584048, 0.8657565291165832, 4.128556701873702, 26.190077096441968, 2.687625063113125, 5.04012145125986, 18.2804754671131, 6.565710389595234], [-0.5493136365134064, -23.850052996009502, -1.7109431787153446, -5.151245778857789, -16.363128777873587, -8.506265196279822, -7.4884547262279515, -19.898721439205655, -3.829434191780148, -19.34739052327523, -9.116154708680558, 0.3494331064050145, -2.4425321378430853, -8.320672897157433, -18.3808051237358, -2.4037420716694755, -23.86747735893364, -3.5434400740662015, -2.900104666749156, -24.200641363984516, -1.5802188785698177, -2.97690803634956, -25.40808382061656, -2.2291978224358173, -4.782854828050393, -18.5082015854664, -5.163150179672633], [1.8208224561382842, 24.62192323067424, 1.6970856689588947, 6.670978590197015, 16.61237087884377, 8.548602402137286, 7.554309327576263, 20.681025410473207, 2.385179991089568, 19.405314161682252, 10.45901808907362, 1.748246365216038, 1.9741083306402298, 8.891052701726792, 18.132271284117117, 3.917387319245318, 21.699181864474138, 3.4463423124551786, 1.854989457645692, 25.11995741211308, 4.397773910684641, 2.244136831117039, 25.34858601826448, 2.129442973206603, 7.554867579579499, 20.1696959763622, 5.710638195810189], [2.9573760745577578, 24.57287005940453, 1.6614334725453936, 4.5154817693512, 14.285575270887241, 9.789360678174221, 7.347549624763508, 17.31871139574712, 4.646767758281889, 17.380229843034613, 8.594969514159345, 1.3928903127822012, -0.1427518574714609, 7.816282523347082, 18.632950955289378, 3.256648879272138, 21.61680910694575, 1.5541032559478636, 4.105124890494478, 24.866687323381665, 4.753578478280379, -0.4076795956460543, 25.522791422806446, 5.655739186101896, 4.806890270406249, 18.334575736696795, 5.148960790288306], [2.2040962454537616, 27.663830393710224, 1.8282271079438177, 4.960671850823651, 16.864201641251046, 10.213746606105357, 5.42247453791725, 20.143737603862807, 3.2654759136476037, 20.6461303206984, 10.964278011151636, -1.0426491560028375, 2.9969519936829316, 11.067408051066858, 17.506286391656634, 3.6184263247407817, 23.17347995094192, 4.041945377839398, 1.669977593292641, 27.93810857640313, -0.11992421061503378, 0.7192424966506074, 25.712826414482322, 3.2005824840171373, 4.4098846209422025, 17.426546146257138, 7.123868737454721], [-1.8986165045069598, -24.728788371681485, -2.5800555893388193, -5.155670052731315, -15.549417042589647, -7.968428275346511, -9.15087798107236, -18.603809123307705, -5.765189983305367, -20.887302203153695, -10.219739237895675, 0.3240079781025623, -1.6680541635796207, -8.474878416983833, -16.884704742825043, -3.995765437392199, -23.080558174542887, -5.773081827729577, -2.582706167899286, -25.582510372012713, -3.5901108642129573, -2.4968691698224066, -26.366127964053707, -1.8287488755625438, -6.464244677805631, -18.387205699605737, -6.120711103167827], [3.4381306671483776, 27.76065312452943, 2.501027474741657, 7.202890758928235, 14.530012332563231, 10.101412252364968, 7.376562758898267, 19.8815782465512, 2.9250958491638186, 19.653759856014158, 11.116882723087949, 3.6922856053036894, 2.276989406688087, 11.140773109954738, 18.799187562619295, 3.0527438979437487, 25.378263705237316, 5.911054917309722, 2.9975008351954346, 24.41957913023466, 1.584089299679694, 3.1950848424709495, 27.70159765116107, 1.743301068356117, 5.510790166090975, 19.86374799569251, 5.869212493616631], [-2.36974776867216, -25.457147327780138, -2.5396567568581627, -6.457968627169254, -16.278421199330097, -8.68296104737432, -8.153589589200536, -18.834202781759952, -4.149658159216732, -20.293407101354124, -11.185716900516708, 0.28472406611938295, -1.9960933345444545, -9.581877461873344, -18.304689588530348, -1.360819176754865, -22.703471340504723, -4.063382540652176, -3.5706476053033542, -27.34108733235687, -0.5929854533360991, -2.871447414156634, -25.837105769316526, -1.651011861507244, -7.0847489578095475, -16.70515905962596, -5.675330107725978], [4.112943708236334, 25.206572523694707, 3.0188697389610213, 6.029168026050056, 15.355402505916846, 7.376555697817856, 8.105743234894897, 20.7618944849686, 3.412510483970207, 21.539591471502508, 10.64964196591274, 1.3721757401412444, 2.9628910691744648, 10.169506021170301, 17.72766486630422, 4.450871441734041, 22.018296810975354, 4.6304844096323245, 3.4627366156653494, 24.48091539807515, 1.7983366500719733, 0.051101904825682, 24.472669038686963, 1.8643493069301207, 3.9125004951464524, 19.828038598893603, 6.776574931604685], [0.7286051737821035, 24.90591459319391, 2.66359493876541, 5.2888758306407055, 16.025214020811717, 7.58661058145513, 7.9566426365993825, 20.200220608483132, 5.194518815501085, 19.223975235313507, 11.891471120349348, 0.7884587439966115, 2.4121209352269437, 11.830639248414512, 19.86941189271761, 0.32346804000920437, 22.630807749461386, 3.9269744418550343, 2.8339854178136514, 26.316791016149388, 0.4883898914328541, 2.6215716871195194, 26.745845768568817, 2.4617370641833585, 4.948737067347575, 20.910036001519344, 7.111956074839733], [3.730883864764165, 27.09645677713861, 2.9204520727738843, 5.251845138223437, 15.970272937033512, 9.99389620179558, 7.595326655934558, 20.20149098899394, 3.1772035629245776, 20.4302324105246, 10.084535017453868, 1.0934339802728756, 1.2075125239981785, 11.566236493713442, 19.20952673639315, 3.7008691625084627, 23.82817325007778, 5.999187109931228, 2.512464008330587, 25.431164302541987, 2.934994008303764, 3.7558593678368304, 27.03193050933839, 1.876875218509805, 6.041466485835366, 19.828893198818847, 6.461376781551541], [3.132645722485169, 25.898686100106165, 2.5214647999781183, 6.069113546461351, 19.4037910055448, 9.774656103385034, 6.000727628046346, 19.01141414894537, 3.653133923332643, 20.860530359621983, 8.34122661092701, 1.447605115500917, 0.7670519625242744, 10.832279004108956, 19.022128122479344, 3.247399558678719, 24.605795380916234, 4.830186075564612, 3.2032105011388894, 24.9035071559664, 1.6053790784091082, 1.4283328497928751, 27.036927350536562, 3.018864826924422, 6.227870057725396, 20.797954918915334, 7.66870416679914], [-0.5049384055251803, 26.275313806058232, 3.3967568800487533, 5.5983380774764315, 17.416260874266463, 9.284223028581163, 8.087569135690748, 22.520330802102613, 5.2126492657968715, 19.191494761215303, 10.266692526060627, 0.4468145419778392, 1.2051718222213992, 9.12841207508176, 19.861232480844684, 3.748770221048578, 22.264187303241897, 5.4498424326075705, 4.50779564634766, 25.883539150017953, 2.160766363876498, 2.6563051893109466, 24.47155777962145, 2.4722576222777946, 6.02514346675563, 19.584096242443827, 7.640591690975928], [-3.3505225343492544, -23.806183787096852, -2.130155809223039, -4.974343720730257, -16.994780193597354, -9.938457974770694, -6.789746351143993, -18.900768002193907, -3.0766590658546953, -19.103465995028998, -9.690929242710594, -0.5793506144065785, -1.1273926113243549, -8.439751414682819, -17.040123911445914, -4.105395187075163, -23.26956699997167, -3.1939766176572415, -2.843908373595639, -23.320334245764318, -3.0752899994744762, -2.0455211715684083, -24.18464641566605, -0.9695442697455809, -6.395282655288291, -19.162729276305388, -5.826968986411904], [-2.825711231615745, -26.25606727780416, -2.7233807235479777, -6.456225985312419, -18.271562390039655, -9.923572238416195, -6.077732241879249, -19.011492325314745, -2.1810936815075324, -20.59719156814781, -11.820104363958173, 0.20853181249456748, -2.581823793177312, -11.34696144910398, -17.09751772823148, -3.380783745061321, -23.093016930512288, -6.165422850120411, -0.6946193045359155, -23.631258162851044, -0.8844241955287714, -3.5777617529157695, -26.57911798121959, -2.156680271445584, -3.9242757030063666, -19.564585100201047, -6.5814151894412625], [2.3465668975356677, 25.400071576289086, 2.393055777424285, 6.234369399465175, 16.393633573087538, 9.9201399041064, 7.044412561079876, 18.880066206298896, 2.22894471740887, 18.690270239514405, 9.127477425262096, 1.0741444902890975, 2.0031191178101735, 9.129531754106672, 18.79582718687947, 3.291343712911263, 22.370755706322875, 5.058875092930622, 4.150182118229024, 26.29052248515194, 2.2611591772925816, 1.3672584462085378, 27.778763868023308, 3.6563471027541667, 5.333747874166625, 20.533285286203757, 5.705606365804757], [-0.07216601884088425, -25.022712673063975, -1.3484449607774995, -6.310588856357528, -15.57470392316706, -9.414721488390796, -8.04600176301326, -18.942621140159975, -2.3969203371200103, -18.853606713865076, -9.116753043010283, -0.14280446128546675, -0.6858120331626757, -10.126998015189917, -19.176856066458413, -2.695838725877306, -22.877531137674307, -3.187120997519301, -3.936509071170744, -27.241947297832205, -2.1396194655261267, -4.002064237543958, -26.32090643165965, -1.6642539275327624, -3.92309764759686, -20.17406908580872, -7.749574075727722]], "h2Weight": [[-30.233609761685653, 30.805266748245604, -30.844101491873438, 30.710474104142623, 28.05422384096844, 32.27644759907907, -30.475566748615574, 32.980063606339094, -30.89134952574028, 30.66101076362082, 32.06460247024559, 31.212173559641965, 31.430472648566347, 31.641278794987468, -29.276033849944437, -32.67292897389025, 31.648820299315876, -31.175848336842385], [23.379784153422545, -22.982461583037676, 21.77980660302907, -25.851127444193192, -24.493571482698908, -24.568119628145958, 23.15140443537874, -23.36491153452847, 22.452037335261156, -21.373885412178442, -24.797863181843283, -24.044717970883713, -23.68069890006111, -24.93314049026885, 22.268503572514568, 23.572250859645493, -24.178629820494987, 23.642610384889387], [-28.1189447104457, 27.16873150900333, -25.328388112211847, 26.967946923228126, 26.46968111342267, 27.803363734115557, -27.281361042665203, 25.850040585389745, -26.13713391695655, 26.063294620077073, 26.369439952103118, 26.096068591530795, 27.170676721502463, 26.41707351600076, -27.647861326572766, -25.388336424788054, 25.273156728728043, -26.99867639511386], [24.949453495217764, -25.14724865303328, 25.545095365883117, -25.865674049770792, -23.890224187927824, -24.512917817039348, 23.280396723011634, -27.06257494530752, 23.921042921396385, -24.301032206011488, -26.338378357059764, -26.2314736493637, -23.562255206871136, -25.278163357342812, 22.997425631965307, 25.26856800111388, -25.106351789903975, 24.957953211989242], [-31.34031136960265, 29.087557846951356, -26.91696695722215, 29.165049296304137, 27.141963921218846, 29.334805950597197, -27.203502531059364, 28.548048815605842, -26.277116411232377, 26.950666061805666, 28.954171892582007, 30.15284681039485, 28.760445534447875, 27.091073338978156, -28.259314149310462, -28.538294143680925, 28.498409187124736, -29.84648229383282], [26.926984028231047, -28.025484946054178, 25.075820590184787, -26.677238041252878, -27.045216905082036, -26.419755414935587, 26.959407965593286, -27.877445714740354, 27.608367644871773, -26.3000337888847, -28.66851900142923, -28.43956412053269, -26.203968581420753, -27.93068102469052, 24.329576988699415, 27.508104799614085, -28.58912003601739, 26.24979264956176], [-28.20741192413443, 29.147726166379744, -26.080717991925344, 27.777860481695566, 27.828817494816597, 28.36674529319313, -28.183467391190447, 28.66044189934163, -28.696043320473763, 28.390756591321264, 28.91581929639438, 29.01883215394414, 28.556798253267868, 28.316990506413877, -28.986586790893043, -29.38822195224796, 30.924642265485087, -26.807812184023888], [24.3516610675457, -24.597246317236813, 25.687416799332247, -25.716105611111924, -26.640377728659068, -24.666706901467567, 24.24362469402447, -25.14616731049085, 25.462688433032323, -25.669629776838818, -27.206095469693842, -25.56110567241543, -24.112713513231903, -24.5984184236533, 22.789024213843845, 23.05307236749174, -25.387968408363594, 23.425447185105302], [24.184432087206137, -25.027661626314234, 26.23574764843335, -24.389251003099638, -24.595561110510523, -25.388166177344985, 24.299866148272084, -24.509848585734844, 26.349148436280032, -26.05565151930956, -24.989771872923363, -26.340741673263132, -24.45461709584622, -26.021430888755173, 24.497920137298927, 25.48982526249065, -24.588324292383923, 25.252728585702073], [-21.236712352902277, 22.12668871645754, -21.346702556163084, 20.85922041315986, 20.80400674744075, 22.180672591193634, -21.755041464033905, 21.85548670402495, -23.167468183798842, 21.62990256414971, 22.236366668419997, 23.118524166778847, 21.682553475151614, 21.954816632131706, -24.20438375048858, -21.47038938632444, 21.526969782335645, -21.830985314477136]], "outputWeight": [[-4.181180414246134, 1.4868576315706616, -3.834524301020722, 3.5355641811293914, -3.450070419520841, 4.240945126286211, -4.423801885759754, 3.5161889892365075, 2.7336611283531136, -1.0430255396439578], [-2.7688909069228353, 1.3189771728092603, -3.933028977433061, 2.216264170713556, -3.157537399583712, 3.4044042103207763, -2.636346825110981, 2.2119169338786486, 4.783826259204103, -4.120769312447649], [-4.950094792367715, 3.808284673096817, -3.375123271583576, 2.079585570087105, -4.3606328291173755, 3.1424956329944904, -2.9767723112892934, 4.4609056800248945, 3.1298798805884, -2.8440561529138098], [8.662129740221806, -7.091154606499239, 7.475114275391237, -6.647339945570928, 7.070941843654654, -7.388194407822564, 7.593754351196932, -5.992756285822007, -9.34149522821112, 6.575114886210148], [-1.4887867896151243, 1.7521572072973286, -1.910073548353941, 1.3831052565143318, -1.602420740068616, 1.1449944343833718, -1.5319195088506807, 1.6304751257396906, 2.023964393292141, -0.9805216197628357], [-3.539266961810008, 4.670752700572103, -2.95660585193393, 3.9609368361892736, -3.645550048447774, 2.8642723168010056, -4.813691554178826, 2.20988747239069, 3.7330630705769705, -3.747775461699941], [-4.754862557385008, 4.641968589793823, -2.2886900210262118, 4.156054030728428, -2.1914334591264804, 4.049167733095054, -4.099940398384681, 3.041740405096437, 4.178694061511762, -3.7603234246659993], [-4.477571685831913, 3.2597323072726265, -3.2070080283407467, 3.3491639357901843, -2.734788089366203, 2.524684445881731, -3.3225553352327166, 3.5045198145557253, 1.4600687038091476, -3.743178869689927], [-4.110389936581682, 4.477427048872019, -3.600467108532806, 4.286038470092101, -4.142094523171178, 3.9060080609914642, -3.90223125504641, 3.4470832762389185, 3.146437133170517, -2.519571258064086]], "h1Bias": [[-31.469882958985377], [29.098085722108955], [-29.04470769459203], [30.300437506260852], [28.47156074320264], [32.66828988428718], [-30.901010815917537], [32.00859002357042], [-28.689764107092515], [29.301473317500285], [30.176516407023946], [28.62175567864742], [30.303536654985866], [31.644210891662794], [-29.537232127251734], [-31.61751079159711], [31.34199207187126], [-29.358122660270055]], "h2Bias": [[31.64903778605582], [-25.236485776515384], [27.081165910421362], [-26.57119913812442], [28.947799194303045], [-27.52801486695327], [27.485346654667257], [-25.705801914017854], [-25.48867676034985], [21.215909791450517]], "outputBias": [[-3.1397467795769374], [-2.516106767290998], [-3.8016766193909683], [6.268907303893323], [-1.8279262151888656], [-2.593944274747536], [-3.5412744943430603], [-2.099442624556501], [-3.45065535660544]]}