{"h1Weight": [[-0.5435530211305666, -1.2185232790097447, -0.4957979256212259, -2.124687604297913, -1.3368187466784218, -0.917763685834291, -0.9216217360394312, -0.9648425232605572, -1.9824608880383705], [1.8429585756791431, 0.9413010620515665, 0.9521278524967991, -0.6117354799462014, -0.17008749849259047, -0.35158181752432555, 1.3509265628843836, 0.9785558559657024, 1.1649068198936552], [1.8406444616320994, -0.49527037684739683, 0.33283476740613194, 0.1762569682960824, 1.4237623127467085, -0.40412737901014106, 1.1460480334891276, 1.4358699869904032, -1.559820326682767], [2.182254438937247, 0.8229968509712907, -0.060360920271864356, 0.39148114797269495, -1.7542184098064857, -1.8467810146675336, -1.0288747862902818, 0.4993547486298115, 0.11283745024509136], [-0.8943334766911987, -0.4441059227459128, 0.023762985209210264, 0.13474970722164087, 0.6286131349446581, -0.9876748199930391, 0.41260584352865276, -1.2161436878752983, -1.2821334896605414], [1.0100304751048035, 1.0143386097608929, -0.9105212534568283, 0.6081013940650577, -0.6197731411875105, -0.7986188673362864, 0.8304313222929097, 0.3531474711721332, -0.6777075485950578], [0.9517125158387137, -3.7456432063466956, -2.0663355436205912, -0.4837352470017116, -0.9885808202632479, -1.099678072313376, -0.7815867430403357, -0.37961932981253677, -1.1868894425165966], [-0.9049079010863613, 0.18443948330631646, 0.8247050200848005, -0.05881762833612117, -0.7191436541090824, 0.12770450366306563, 0.747777438508973, -0.9260483001664236, 0.7463786080823237], [-0.11959754079720006, 0.13629084510429765, -2.34724618044799, -0.981418281051192, 1.5810225225368237, -0.9406672065271385, -2.672234902442639, 0.17102114347877098, 0.6110491606408531], [2.6059683456429097, 1.257372231709929, 1.3791808666975385, 1.2189478321325387, 1.7506269530560319, 2.0237863640511464, 1.1665367419910904, 1.7350052548033443, 0.6769464000271326], [-1.2063441247659537, -0.3056792524752609, -1.321397895974071, 1.2246761255114391, 1.3330598303062797, 0.07129750644138005, 2.3701050809990565, -0.29797674497715054, -0.31992447474396396], [1.6942762901891535, -2.732990936182124, 1.845778230527601, 0.573982108232393, -1.0109522444262509, -0.6155464528233398, 0.02696772493699549, -1.531910427395621, 0.2932722029994294], [-0.8915586113341342, -0.8880365111871227, -0.6796292302492832, 1.4240832492033835, -0.694184659127204, 0.18270207831199983, 1.7168571576673812, -1.6441183151233516, 1.0504662409370231], [-0.5951995150290349, 0.47670484369761984, 0.8797357494089266, 0.7807128505767663, 2.857125404924841, 0.4593243593660325, 0.1573732482799923, 0.8972993466140381, 2.5350856024506245], [-0.7832039190754607, -0.7158268271994239, -0.3584964115833366, 0.17095354152371792, -0.28002651123958233, -0.37855516904847053, 1.2518939938125608, 0.7939828175775583, 0.3860206184010102], [-0.15154432500338233, 0.6415148558261399, 0.6752764246244995, 0.4305717807453807, -1.0029735607124712, -0.5324960640500123, 1.4299133183916701, -2.181365907386363, -1.5970477554645455]], "h2Weight": [[-0.158301066956433, -0.33517348649708684, -0.33710866925325245, -0.8402713233749308, -0.8150699033912143, -0.18230987778843977, 1.3032246018384892, -0.926849601557237, -0.179626408537012, 0.16274788895362025, 0.25173128812960066, -0.8774041780114645, -1.8475758037334822, -1.4551207803449442, 0.3435142664578405, 0.5322576179859434], [-0.6519266126627867, 3.3506926547752505, -0.15800678502260182, -0.7501045846162158, 0.674201783897346, -0.68471484525419, 0.2984590010162091, -0.328689818253216, -0.3884573686708912, 3.244333216523734, 1.5035819484099266, 0.15054036187502384, -2.445104548441281, 0.24404455111568193, 1.0005285367794103, 0.22097059356763], [-2.5162416901268068, 0.7410422245034276, 0.4397597322652187, 0.7473793702958902, 0.21858119793580857, 1.081090414110948, -0.705662607461431, 0.44658673134665183, -1.6990521584468865, 1.8203303555897234, 0.1174707662585952, 0.8646833254554049, 0.4263103806206545, 2.5706048148586333, -0.08927211256307799, -0.6398496708364304], [0.3840306397255553, -0.6880248275781121, -1.8019163857300808, -0.7251027634747875, -0.6456322754045977, -0.6724177912639098, 0.29188974664560924, -0.4634310924197218, -0.8575268123916969, 0.4587272893701168, 1.6987811700736883, 0.10210783882502454, 0.9774834215965539, 0.13358766940764527, -1.402134510501367, -1.4966782883377747], [0.1253052970291978, -0.7405847564709747, 0.38265866929655024, -1.7433837024371366, -0.6219465754492441, 0.25444891054379803, -1.589045071325801, -0.840629797736778, -0.17700328186170364, 1.3896092454946547, -0.6679394851072407, -1.2196119560770464, 0.5199480455085239, 0.1347257951169499, -1.1856831879405376, 1.3359442737276304], [1.613522091835741, -0.08279432567023795, 1.4601621746925333, -0.49796821434761196, 0.990866348144936, 2.2581242345020547, -1.48898831141174, 0.02532235670644476, -1.419004354530747, -0.006413183196413963, 1.8943580629568468, 1.5367132524550227, -0.9373686826237526, 0.6571655585355602, -2.0705648947656807, 0.7701289883192993], [0.8761043158440825, -0.9571779989961314, -0.7774067790596074, -2.8643320750068284, -0.15710716700486993, -0.24727065579871205, 1.1208662384848367, 0.823375319924249, -0.019180351530609107, -1.5113991061449494, 0.4989391824934495, -0.22424666793878867, -0.9413542849887171, -1.761190822197115, 1.2770491537747144, 0.41364769020841974], [0.5932303805388164, 0.03133679265867061, 1.445198875515872, 0.5404165856284742, 0.0022926055285292547, 0.5152270256763593, -1.5007592995802437, -1.0742275134660644, -1.2237597664566189, -0.1836745892976653, 1.7605512746425305, -1.7329733699066157, 0.7017363595094916, 0.79609653460835, -0.4918229186579869, 1.597803100124428], [-0.5726139469969161, -0.3511624604266236, -0.495297841054581, 0.09055528547083111, -0.07272728875505757, 0.050172022147792185, 0.25514070331422084, 0.08767391374544388, -1.8318136159936191, -0.26249136965384623, 0.14659266261863374, -1.327938759643986, 1.5478592009998915, -0.3865116482292693, -0.9383362111544874, -0.23338386463012425], [-0.5676422061630761, 0.9483376346466946, -0.1578323721029081, 0.49824166356755356, 0.5199983168419373, -0.8984757392358371, -0.38724643736452813, 1.0800612814513906, -2.31559543587867, 1.5862730918447785, 0.18695135541953764, 0.28196336483916135, 0.6885629223491249, -0.8446541929227308, -0.3663323442945781, -0.03013710452311931], [0.8206854332829449, 0.424605562116953, -0.3278676340752678, 0.46000429364346856, 0.6265990163929246, -0.4883322683954616, 2.7491657485234557, 0.20929626264063983, 0.5744892930340391, -3.4086333203644963, 0.5766984863234804, -0.9590436597227602, -1.1155211536640295, -1.4327890769942375, 0.03277855482563171, 1.6550388365641384], [-0.48329317648474374, -1.4733404161236945, 0.2697062585360267, -1.4160417634268114, -0.41795175586181843, -1.6900519498349906, -0.9896486541594222, -0.7710747422838018, -0.5919329958323393, 1.4395743002330914, -0.39870842035040926, 0.7089574618004005, -0.7709940736641642, 1.2766299229621938, -0.1774111682089297, 0.7681086779175509], [-0.9119366817141465, 1.8151018273330457, 2.0275416738948446, 0.5780465488506759, 0.4796174607700676, -0.28399683914123364, 0.1720349860305954, -1.176314940287619, 0.37685899064069595, -0.7032361980851186, -1.6946214405713669, -0.6385228695283044, -1.3505456069115358, -1.9706477660604065, -0.6597418769120765, -2.032801345805138], [2.9352062637827885, -2.0380135495622866, -1.813783069118509, 0.6066701047285057, 1.0697540720237337, 0.3049201542378562, 2.141613298042452, 0.512266277369369, 1.3026557148411908, -2.9917351628557127, -1.1366665244679177, -0.5377355270794766, -1.1907609173901161, -0.8342658889517969, 0.7589684342190397, 1.0813407966527064], [0.33970478742008553, 0.02578626728056288, 0.5088488068795779, -0.851357581882765, 1.1570747425500298, -0.7061700479179419, 0.053370147232493864, -0.7375015972829602, -0.9294885634440653, 2.2145822341728207, 1.7194785155751517, 0.8403153133403339, -0.03486123321424848, 0.3828625236784449, 2.439796489534329, 0.6978561767744642], [-1.217801332571985, -1.3280595124622525, 1.1810823291818346, 0.4992614579862166, 0.4192483823334576, -0.2040496169170938, 0.8177539579666876, 1.4541277885872994, 0.7308063456333179, 0.8525865735158759, 0.13255260701107738, -1.3781996281739568, 0.5532187029782821, -0.752423809687215, 0.7635682891176779, 0.41514826044832676]], "h3Weight": [[-0.3020652094373418, 1.4129210596753257, 0.7968472887422482, 1.0263217248914611, 0.2248888064358263, -0.17234445579496543, -1.1908318101366087, 1.4226015496430087, -0.19385660409610217, -0.3161973164755953, -0.7298437480837136, 1.3125394455063728, -1.0046168498426176, 0.5842706469149287, 1.058128498293498, -0.17871755416655855], [-0.6331815948795035, -0.06414034547214988, 0.16021518478849883, 0.1808361975459573, 0.4968076252199788, 0.36724372934460603, 1.357217421742633, 0.019112665315960998, -1.455439964291473, 0.7175520154337496, 1.9882093658926547, 0.6386976085689241, 0.12034734923481231, -1.8688697532920824, -0.6652710376095193, 0.8750335237720539], [-1.6285006391699874, 0.12491655669737348, 1.2495841581814982, -0.12945805109654127, 0.48122154738901857, 1.095729498972832, -0.5087034557380435, 0.17762629044783595, -1.5736793503207236, 0.07532405756649418, -0.9614959777559442, 0.7120815266859436, -0.6268698075996414, -0.8131224689925838, -0.4391421708610777, -0.373045861296281], [0.565963483636163, -1.1423554247082748, -1.668564563019115, -0.12374620061856334, -0.625941336270681, -0.9731402079350167, -0.8486405532235576, 0.6024950509298611, -0.07209387489942656, -0.11747243237973996, 3.5629443459904895, 0.0005775183348377768, -0.1766820917639081, 2.063372612236176, -1.865120304863105, -2.1162360014207655], [-0.529420765671697, -0.30873224138067046, -0.14576748244988386, -0.758825620660388, -1.077898112519775, -0.7743000707903042, -0.42527092673912587, -1.7099130656876376, 1.277706252135008, -1.5370379997840369, 0.9093725555547137, -0.47045204400829477, -1.761804382049985, 2.233554702800459, 2.0913580387109585, -0.48971297981397754], [0.36924706702290555, 0.47209368439372446, 0.6631566660985108, -1.7389308535863826, 0.5172414226393006, -0.040940623012995066, 1.1095914438827224, 1.5388692723944422, -1.2678074145897857, -0.0410627865186485, -1.6398968695503222, 1.3823135625662748, -0.5376872673645936, -2.2960027726398566, 0.47092698179421016, -0.5692420164134678], [1.0225662339320067, -2.329352245857127, -0.6259678327131786, 0.5273809208039405, 0.8665072903080862, -0.20179077886021812, 0.7064595012494547, 0.14985336237100563, -2.0223222723484358, -2.0291530419952486, 2.159740430358667, -0.9128351280272785, 0.704032023589132, 4.192354100012579, 0.0775398586753124, -0.4865441177547942], [1.8604471782534, -0.3208552354020528, -1.6653964552666565, -0.9936489795376946, 0.8142290129891626, 1.035305596139708, -0.38431500059642704, -1.414630570115428, 0.8252968692581129, -0.5153465729655191, -1.7037290409610737, 1.6199993176181393, -0.46815965173940854, 0.4241638033463536, -0.04399637605843681, -0.6878350423928774], [-0.990491384362677, 1.1833891969403845, -0.06392125961466345, -0.94697564746018, 1.2758504547447025, 0.5752686839678738, -0.19642847393321441, 0.13028144080342932, 0.44299614952039806, 1.5762255069833486, 1.692920328041828, 0.10119734217218067, 0.5184516605933981, -1.1546705040227467, -0.5343636724079595, 0.8922471098836188], [1.0839541138448296, 0.293684378703936, 2.3687110839160725, -0.13353360244027015, -1.3745187601406987, -0.4690049742746827, -0.5151523213725383, -0.017325094115156453, 0.4985153158219957, -0.11849703849545835, -0.7970046523882437, 0.49248430565584134, 0.36190528454798226, -1.7465078565800491, 1.5478621724434116, -1.1034120490304913], [-0.8528878783371499, 0.7554107029577337, 1.308544803378755, -0.25685419736719733, 0.1205384262267429, -0.05470840935217336, 1.267738665333332, 1.9446535867236163, 0.018253077540412308, 0.311635879801271, -0.9450383842050235, 0.38808767381152787, 0.24800228817242184, 0.06975157137044889, -1.1364177273810754, 2.119047928437218], [0.010749879263361354, -0.2982385533312017, -0.26763282792832194, -0.54119683610835, 0.4279271154760042, -0.9930656506875982, -1.2205600857733003, -0.7405336404521605, -0.3097691675299527, 0.15461404971211212, -0.6283741793565356, 0.4122734463324413, 0.8162966775979703, -0.19222253024609254, -0.5403766246136698, -2.245897600373818], [0.026178149619994144, -0.7962202487235732, -0.0938022856922633, -0.5957793487243999, -0.5433642103069678, 0.643159042176935, -0.1384677984770224, 0.14630873588755944, 0.6268863687732523, -1.003535908451407, 1.2385755257760982, 0.6664811428009897, 0.8641044956772037, 1.0451159822708513, -1.986618645618786, -0.20916129997906835], [-0.42903565639380137, 1.1792229512273846, 3.5008054256525063, 2.5337462881114527, -0.024199729580182672, 0.46856554591379956, -0.517617503358724, 1.3935565536880996, 0.6126867984854789, 1.381300354029354, -3.668131413623368, -0.44007974879742157, -0.30141073123242823, -3.0807476088692214, 0.16594981969007072, -1.4146432424906745], [-0.01676999141264932, 0.7331753663402757, 0.6857766274395152, 1.6773294641762908, -0.4045268858743996, 1.3256207824242003, 0.2749598449409412, 1.9177254332847387, 0.12192372688041704, -0.30321187023910684, -0.7901209197482835, 0.5934524080099991, 1.4514472607466657, -0.32430469513362864, 0.5827719948488609, 2.234385901516153], [-0.5170475707755808, -1.3038232641150298, -1.7737061136638412, -1.7247939007141089, 0.4859970744545812, -0.008980965654682715, 0.5968145444344913, -0.7013835454612689, -0.20751010115330185, 1.364313661719852, 1.0548821892414642, -0.7430634146926791, 0.42031355732163483, -0.8125285030619241, 0.9843157664341273, 1.138745572869663]], "outputWeight": [[-2.1553310864734154, 1.0119704412883737, 2.4045533066854694, -0.5034453674268274, -1.1344915174824572, 1.1075866736065045, -2.813852176677859, -1.4169542556796155, -2.5602719415490327, 3.0115104827788084, 2.1952651994403123, 0.17892630956718883, 0.2361183000689957, 2.554738651232532, -1.1487534671159576, 0.022384627910484907], [0.4390679144723899, -0.40706500772846127, -0.5043092103967765, 1.2194140496700019, 0.18055334625079533, -0.7556024009422453, 2.7278493767140573, 1.9631857083859268, -1.607842634442048, -2.1637226578452147, 1.3516677132810104, 1.0838522568932891, 0.2499100023348409, -3.3956892752026913, -0.06331246048784016, 1.0892532650719118]], "h1Bias": [[0.04549764877104407], [-0.7400334943758894], [0.6211384829661043], [0.3330174615767344], [-0.11536798507481306], [1.64646268612034], [-0.2565533750239308], [-1.2693351407222704], [0.6139978143064236], [-0.4588329076786396], [0.6983735611764359], [0.9087533681717768], [-0.07348789195842849], [0.20969898367172088], [-0.28101821138377164], [-0.37487142913492233]], "h2Bias": [[1.1039970765919531], [-1.9052737001578492], [-2.296003467990571], [-0.7186559016925087], [-0.7982373376939637], [0.20830147420594317], [-1.1542865507560063], [0.0072262149933422564], [0.7179414772477071], [-0.8831759161266722], [0.6733749828504302], [1.82102153701787], [-0.7930857384168575], [0.723571421570901], [-0.5205882508018915], [0.5432084822641164]], "h3Bias": [[0.3211043581901601], [0.07625864629198521], [0.23263282366241622], [2.7623224403470363], [0.048699917851059385], [0.12932286485750355], [0.10520396103148591], [-0.8765914901021477], [0.8744826444315059], [-0.5868839319251353], [-0.5248649090742433], [0.6158191514690744], [0.265940804314653], [-0.39423017857187453], [-0.2358807766887674], [0.31444647693662464]], "outputBias": [[0.6454615530347345], [0.5636849366301938]]}