{"h1Weight": [[-1.0072729823050732, -2.6426845024996033, 0.16983643483220198, 0.32378914286188504, -0.22622410977971688, 0.7927723500690935, -1.493785183600297, -0.3314020190423741, -1.4006407953334332], [1.3217990468789953, 1.0170657488384816, 0.18178882902259985, 0.034404605587430616, 1.6382055843601724, 0.7214989030568758, 2.0334122232298775, 1.4368832363262714, -0.024986411094128854], [0.07011070406557762, -0.8231019915698226, 0.47710573564871983, -0.31861267222239464, 0.02258829122574749, -0.2225774403578881, -0.3144869982349553, -0.7711471479392873, 0.6350678512834177], [0.28397216462960034, -0.2752639070554775, 0.7658745752312149, 0.6041060044008673, -0.08722894942883534, 0.400292734694301, 1.8557775611287277, 3.2513689426751617, -1.3962840585598641], [-2.4521052258787694, 1.8675155641680048, -1.610568833952721, -0.8618323871438895, 1.636116971217007, -0.9536633379005974, 0.9516019699101302, 0.4751289684633336, -0.2570058453267243], [-0.5396884380273613, 0.918384929990877, 1.131523612970286, -0.24999146412286, 1.8613880607579534, 0.9008192177793259, 0.28216095400921204, -2.3187315441042693, 1.0631057620831528], [-0.8476665666792058, -0.32803544354046643, 0.7059636908570699, 0.4988225007381637, -1.210191507944003, 0.5265273807595474, -2.227378284031789, 0.866568680924464, 1.8718885730500372], [-1.260470372731097, -1.3834635911430913, -2.0290740925334045, -2.1177182763873117, -1.7198425271927766, -0.651791172241805, -1.0596960830368662, -1.3244376243244769, -2.002235207968926], [-0.9775337666545725, 0.8447871524811049, 1.127090769206395, -0.7186511792727077, 1.1034671291118276, 0.17800247526321858, -0.4239335080991737, 0.7205793305829964, 0.7727305021467028], [-0.08894179814316898, -1.2300544955283192, 0.17652815505664937, -1.3899377490869014, 2.1974533466822623, -1.6859624474310042, -0.1270026267722225, -0.7989402698227249, 0.2834490891912232], [1.251179098911015, -0.6862832156406051, 0.20366883053111437, 0.32706593319114236, 0.20030825765137336, 0.7383736603252279, -1.2491074567438694, 2.864591617185493, 0.5639393260342422], [-0.3384680695690213, -1.7041365198457876, -1.8399154492667704, 0.35189975370563287, -2.725464925262294, -1.5765285531541215, 0.13691915768631802, -1.0548073990356597, -2.2247354005862445], [1.814152292070912, 0.3697076648928461, 0.7891150861239814, 1.7678245062300701, 1.1157369124855487, 0.5885340243536457, -0.820596002119805, 0.7952438831717018, 0.6872073306054303], [-1.162074184819481, 0.0505565584282826, -1.3289414240032478, -2.0247606961045133, 0.8347849840567451, -1.9557251011125363, -1.232996346866227, 0.023952700851042816, -1.0982569842148224], [-1.8659954062678072, 0.6873854164173877, 0.3192016216279557, 1.1902113197370732, 0.13096510752953702, 0.22518103317163204, 2.2553659539284903, 0.2599641966915849, -0.393576703931989], [0.482294106966908, 0.31010173533386626, -0.24604736205773722, 0.07038067829284601, 1.5199830077575087, 0.832535425235065, 2.1248332464844766, -0.057598237931510844, 1.246187391065349]], "h2Weight": [[-0.32684133275950994, -0.27380999478437834, -2.034339629924912, -0.17824458268788498, -0.2747146936198008, 1.006482550174484, -0.14334970671125927, -0.9068165729349582, 1.6022811073691967, -0.7717891819365416, 2.1158386693470175, -1.8744202418439748, -1.872502336334851, 0.26698555503806504, -1.5586971552353148, 1.1171684591052686], [0.053469432412454485, -1.748154415253482, -1.3919865723493334, -0.21225666076024396, 0.9839628886559068, -1.0332737480804497, 0.6370069649824216, 0.8727479421981783, -1.1237441499506893, 0.9987124362887649, 0.9220783434262959, 0.8477169340207938, -1.465274880821495, 0.7041892190843906, -0.12845326097215523, 0.5730460006342468], [0.8276151487212539, 1.9062544875779657, 0.07794129404087008, 0.5201502886955092, 0.9545792249688937, 1.8067887885347393, -0.42631377062392906, -0.4403455050664708, 0.3242881633146638, 0.35210115506182516, -0.8431702382401848, 0.19184632917917804, 1.0823627138689969, 0.6339759566427392, -1.1138630804136809, 0.15211087816922256], [-1.4579370650644579, 2.0544578243927845, -1.7536773021559002, 1.2794256376471154, 0.09960810114752115, -0.10876826831116505, -1.0037784958987122, -0.3196984003523633, 0.8539715318048136, -1.604824859384127, 0.1312978186572837, -0.8184461805914953, 1.04823403431291, -1.1071904229451117, -0.08150842669670935, 0.8407911081552542], [1.039198549747893, -2.0828523418327873, -1.2613725806955292, -0.3916397466383126, 0.5819647023670198, 0.595000578840021, 0.22391388934471057, 0.9661202504005729, 0.1088896243252984, 0.84625503705925, -0.9584377704772327, 2.46147540392275, -0.7853128347957059, 2.225201334100763, -0.15019147308328618, -1.4646750683931653], [-0.3442245002115134, -1.2394207518821752, -0.022946116016243908, 0.24613936227172306, -0.4810861754708902, 1.0775526365999974, 0.27223277546823266, 1.4726228268323915, -0.32236510741799523, 2.072559409733415, -0.7848915041929171, -0.26133334995540397, -0.41124405099940375, 1.63452519229782, 0.2917666700132962, -0.41842477049605886], [1.555457752304845, -0.4770724476500726, 0.7213960728438936, 0.48447262007357844, 0.508351866069178, -0.0799167139856081, 0.39489768750967663, 1.5155041846361934, -0.5794222307475616, 0.44058153808275513, -0.5049360044525439, 1.6042666358079813, -1.7195764837346368, 1.8816812919820778, -0.5248463585431268, -0.6485149077377993], [-0.3891420873046326, -0.39804828751300764, -0.6919754281658802, -0.02589562029375178, -1.0650082970832733, -0.2934409640151185, -0.9615979939418944, 0.2267355050308703, 0.44576044688417554, -0.5376790004809351, -0.4663068460631846, -1.255794300452758, -0.7896603408743987, -0.15420839472864162, -1.5016330637701691, -0.36758417435137963], [0.8856371247400625, -0.6785216603607017, -0.1395767432603949, -0.8839549105855481, 2.613159465352796, -2.5962959695556, -0.05508395430011389, 2.565390531100856, 0.44331519547441733, 0.7398814193598128, -0.3001484434707709, 0.17848163096354977, 0.7040841849256452, 1.4822405939796361, -2.206899787484351, -1.4225698925228134], [-1.485291664358747, 0.3860764360868276, -0.37526390723094094, 1.16751903269839, -0.1811681588024998, 1.3177310134792048, -0.7961465303915432, -2.654574556231327, -0.7036082579211556, -0.4018349366533865, 0.4569322755495556, -2.2770798696095613, 1.4676418732060883, -0.8622645885574722, 1.1642025109044694, 0.9802630968297908], [1.405236500186413, -1.641550734681911, 1.5406979983238163, -0.9903291823734371, 0.2802972421602693, -0.2901329326637242, 1.9108556287236602, -0.4430089545332289, 1.1389711789354384, -0.43809191848473233, -0.7507526447948836, -0.6295961832833159, -1.5462280188840054, -0.10321432115377102, -0.49128226648275264, 0.4365901392904843], [0.43744187069016316, 0.9253721701950062, 1.149041245749415, -0.9099229331079315, -2.0079982066989195, -0.4944027163649145, -0.0594739662756514, 0.36039216139176217, 1.072454134996272, -0.901187431890884, -1.5565554057628541, -0.8580844820949358, -0.24367444614081799, 0.03253215442764244, -1.7295650884432565, -0.2747259417179686], [-0.7408629896155016, -1.2400606531717362, -1.8653098126739114, -0.7424399049963221, -0.30328806431939404, 0.45744226963288237, 0.49074545334250125, -0.49035327209360574, -1.4147898193600819, -3.6092446755126284, -0.5791130688291108, -1.027979889191925, 0.5370149007497985, -0.1828271416984221, -0.14077835833861316, 0.7740345089376894], [-1.0714485553403246, 1.6613396877825966, 0.6342664451797639, 1.4254561743571998, 0.2818122600274498, 0.22354353901940652, 1.0023250002719468, -2.1879961816298503, 1.3893916041388599, 0.6714026800265606, 0.4388861342813059, -2.319051889520096, 0.08808321807428883, -1.9725520741502607, -0.4893833789755886, 0.09292967581700076], [0.5738418788722304, 0.2625779096514064, 0.7015730770265081, 0.44005709310283525, -0.9233321534569742, -1.2590833601627645, 0.5322613882978994, -1.1328655245690735, -0.8048691077483303, -1.4996997583811233, 0.4026517595868608, -1.2314969631862498, 0.1864099731546637, 0.34818829956489494, -1.3011770372306233, -1.1076427608960564], [-0.32394244979537873, 1.9240854199147552, 0.690133793553146, -1.0317647807955286, -1.0157025013904406, -2.90720881936443, -0.007735262342180459, -2.2676574543246404, -0.15638963348231755, 0.9921584394739511, -0.5161421149154113, -0.5947839454436252, 1.8967665410323402, -0.8675799399284172, 2.1999714947176665, 0.2824820467507161]], "h3Weight": [[-0.535977264114477, 0.03053374473683041, 0.07152432982028537, 0.4955881095789419, -0.5934800885916645, 0.6498977888857587, -0.44285758569139555, -0.8057318156622387, -1.2953068563559937, 0.8891640713074446, 0.38050886942324974, -0.06830646362629199, 0.47407127074914474, -0.14567322938015995, -0.21671209128529234, -0.9911713034810656], [1.2284631122935985, -0.9964582469383173, 0.1789834981545381, 0.9616623775123639, -2.486287172435425, -1.019446623421256, -1.9257278940340237, -0.7008225806988575, -1.9824842561418148, 2.1497432467679607, -0.826010241769828, -1.4965146975300592, -0.4787445044029028, 1.1726810244004056, 0.2933113680473958, 1.6748083262318736], [1.8810953608654664, 0.3488735287241902, 0.24012320062740233, 0.1368582172330711, 1.163466504695545, -1.8360409987514275, 0.5722267867474632, -1.299993513384884, 1.3547511462850932, -2.6300247932969185, -0.4040253880243339, -0.36197890866782867, 2.5678157344703734, -1.3517239856271974, 0.5105594343438898, 0.05521268944852862], [-1.5196037623460414, 0.8493504508210065, -3.0591032405635836, 0.27431033343751005, 0.32214646194372054, -0.8588320823512812, 1.046989514571729, -0.4057741838257778, 1.0422772017801838, -1.6057405508749554, 0.47751103064445755, 0.7222033697388176, -2.1370177634120098, -0.0430280938106709, 1.0194560451326402, 0.35635980429409053], [0.5900996138405171, 1.40750570909857, 0.810872146311528, 0.9865320831352112, -0.6354984918822956, -0.7521870960444511, -0.19318294994071505, -0.28838861634307933, 1.534769348720299, 0.1923257447456422, 0.12473215775541556, 0.27604541102248686, 0.4101048444103621, 1.0887590648138032, 0.02501514818583431, 0.5878352814085235], [-1.0583312763698247, 1.5293060896018644, -0.07284151074679643, -0.4342295841938456, -0.28033280268876276, -1.9224482635303273, 0.1102995215653415, 0.95672737203416, -1.1634093155591385, 0.12196714166194184, 0.21446706160956633, -0.053594137621759574, 0.43225401306074634, 0.8077191330680332, -0.11817579314077023, 0.762282914780672], [-0.422074026168456, -0.4647770675550982, -0.48097969938281726, 0.07516579678155032, -3.3619635351408723, 0.3468070346952786, -0.036207174975319015, 0.9107614929092904, -1.5089550604133788, 0.7871486235229983, -0.02729174194947456, 0.7198425489042044, -0.6348678015550653, 1.1078713734965024, 0.2664173052314571, 1.1403891830231694], [-1.0423748157399613, -0.4709702722165186, 1.6198597965303314, 0.8084458336679973, 1.639422505961092, -0.5398542531833673, 0.10750419559188977, -0.5989959182709664, -0.4497546305685834, 0.4907096546874633, 1.5183307151495309, -0.022808288499452434, 2.4587144837193087, -0.4357844304406275, 0.7971208408704524, 0.181200631352896], [-0.28084051045116415, 0.5970353864688375, 2.975814935248047, 0.701068605592117, 0.5328140350565755, 1.179537149734138, -2.1964554654125052, -0.24006794923558955, -0.908933117050506, -0.8610336413129204, 0.7696758839720271, -1.6465256544314817, 0.18429018779449496, 0.1498635180104779, -0.9307452655601777, 1.1559785170078822], [-0.3711286347825262, -0.24654343748721294, -0.8146440647512226, 1.5588127096319242, -0.015333846887438784, 0.42098799695803013, -0.1918614803226866, -0.9695524450678827, -2.29850838293775, 0.5059155292001577, -1.8609719632695327, 0.8549448568435228, 0.15696412824491826, 2.102655097531896, 0.3301737936981668, 1.1278639018764356], [1.8912899963999075, -1.4062037954081485, 0.5959379433256544, 1.654528970434136, -0.811767570976142, -1.0116780560781118, -0.08907285791089188, -0.9034287611792805, -1.772356027065047, 0.6572295575134489, 0.3747164300406128, -1.472803365151639, 0.5373967603221295, 0.09389603240591832, -1.9884282225028802, 1.5074802717023954], [0.09076892819929135, 1.6695876663270812, -0.9579963936259847, -1.5306159185860988, 2.172087075878421, 0.5365907636044605, 0.03257139492286459, -0.391874015049144, 0.9416300044783263, -0.2669955615141425, 0.2016431958749437, 0.5396706152799449, 0.3587664710737685, -2.7420136632923975, -0.9967691219811683, -0.7124469640058053], [1.866256856737156, 0.30215344308402, 0.7344064126151729, -0.4218780810720005, -2.773783776685083, -0.3067379005674579, -1.2465954647115716, 0.8795483128996774, -0.34127280959376083, 0.8805677986378933, -0.046172177670601916, 1.3845746386165687, -0.04081539893098338, 1.7419485903880572, 0.7370495107892058, -1.1187685917784627], [-0.02514487534187673, 0.6445760429479999, -0.4666540819964, -1.983242404173893, 0.34784321689571035, 0.8429349204657592, 2.4100932773595427, 0.6273606368553214, 2.201305343121843, -2.3120485232055934, 0.6684449614602944, -1.4174148442550936, -1.900868411622114, -1.270283642390263, -0.4669987300829769, 0.4159065968701332], [0.24089406977074365, -0.9432037436986933, -1.8276995664797167, 0.5020173718742844, 0.30922195070964226, 0.8292368151018987, -0.9690962215311828, -1.1788659047773085, 0.3399297556955036, -0.7599375836679237, 1.1575250291401955, 1.859247297790378, -1.8543915934081598, -0.3506893264105121, -0.29043130547408574, 1.1660196955207098], [0.1273552093032284, -0.23236908599871678, 0.9864223750122146, 0.7194120757467494, -1.4521031583788575, -0.2366378125691055, -1.4931344224213459, -0.63976727476077, -0.3983995487960599, 2.44523880420854, -1.5493255759951807, -1.0425777819070856, 0.5786598033384934, 0.43178070694538995, -0.42347945975072787, 0.5149768070927675]], "outputWeight": [[-0.1019185926026215, 2.3593225387618175, 0.27488407433233586, 1.2500175081275882, -0.6608464115771573, 0.5280971201803263, 0.4202350020188821, -0.1951544735198962, 1.1472783802190498, 0.1961718447224183, 0.4582730877871941, -2.71111464647339, 2.1474048944362694, -3.3694540565020863, 1.152314535112422, 2.0877597173354703], [0.8013522165236888, -3.938747245342269, 1.2995309206044234, -0.0750830156341321, 0.33435213802603175, -0.28816499156339753, -0.6717567343395048, 0.5724833042220656, 2.570705909014296, -0.3324635059253633, -2.2933318197714145, 0.6866672919808774, -2.2979190287359343, 1.3974844205342989, -1.0574398107383152, -1.5656243798900171]], "h1Bias": [[-0.42650136526228033], [0.19336308252300777], [-1.3786526413755973], [-0.7076403440733984], [-0.8142364576784948], [2.095674016202452], [2.338503684587087], [0.15628540623936216], [0.7649273000217295], [-0.504221736366295], [1.8255668587954816], [0.6661384381436649], [0.32172855517483245], [0.5582706555218209], [0.0431345483278076], [0.06963204312564993]], "h2Bias": [[0.37320321511739085], [0.8578743674564449], [-0.28634563319748146], [0.012198387170476057], [-0.6947196531502724], [-1.294195601983169], [-1.4758468437028884], [-0.2976243877470837], [0.6871071438224423], [0.6351476751664279], [0.43479621054315387], [-0.31813631930435005], [-0.6290095688776642], [-0.767172288034614], [-0.8883915559473418], [1.0227759733987978]], "h3Bias": [[-0.42550902570533344], [0.5157281294652667], [-0.3334317721384904], [-0.5733847301919445], [-0.5702915139867373], [-1.4745789386154935], [1.5719392852049068], [0.3389319967725388], [-0.9880126442867461], [0.010660617922810017], [-0.8012063299642553], [0.5826258441798757], [-0.7566682841225089], [-0.045589396813375475], [-0.24639695345375104], [-0.6211295842852487]], "outputBias": [[-1.1299581950483704], [0.5765948443561617]]}