{"h1Weight": [[3.650284118976442, 19.905485634815378, 2.5793249643897505, 7.751432672826788, 11.31615593995545, 7.423529598776712, 6.668493138510599, 15.534673845183711, 2.5891472722592717, 21.258662415874785, 2.531853614907189, 0.4509177951533371, 2.4559385277257664, 9.26261089603871, 13.788242380029354, 5.121271158848207, 18.457055994109574, 2.785782822514753, 3.256996723805309, 20.41020620016948, 2.132640346649133, 5.023017547875975, 19.624985940533062, 3.121027266015927, 7.093484371740705, 14.080483874989346, 5.055387559855865], [-4.393729976570073, -19.98615947946775, -0.26356326242169503, -7.432286743095595, -11.05727339841046, -7.504191849454575, -7.160583020534913, -14.406184648453527, -2.003832325567915, -21.869137657381142, -2.8121404519228466, -0.19718495773624065, -2.1769092871795612, -9.870830681433565, -13.303267051710467, -5.153437523309509, -18.92669343026135, -3.137342450196846, -4.376357579222352, -20.972484650409047, -0.33200131637416047, -5.414081918428287, -20.735444467585275, -0.7230486940459944, -8.359862632701613, -14.463194704893617, -6.088819822107723], [3.6637405444897873, 21.06065417190907, 2.582910393567738, 7.8805423738131575, 9.738892191171955, 9.135027118292427, 7.122996727839905, 14.023921832788748, 2.139872432121732, 20.944670189613152, 3.116925704117137, 0.2627445137812406, 2.9411445185728042, 9.769371004413786, 13.441136832431004, 4.529010934167338, 17.566850024529575, 3.0232926049213598, 3.9135551856974007, 20.52513993118949, 1.8623087839188321, 0.9202474994840227, 22.735453101582106, 1.787886341667801, 6.7494884039040794, 14.341053672025902, 4.344683926016646], [3.1678531247757653, 21.644988255615793, 1.4850723052487915, 6.2457855483023375, 13.70083079789374, 7.663713352820124, 7.051628186142084, 15.662081169237858, 3.0523715985082194, 23.25095339151405, 4.656154993685042, 0.702866101678039, -0.6509773334788979, 8.462958965747575, 15.067810192210587, 6.4006241037924605, 17.28872265217849, 2.398452284112392, 4.637698097462182, 20.772721984121326, 1.2245653644805017, 3.467372009096976, 20.042923966277634, 2.4061498313688894, 6.360416013883644, 12.297459634556624, 6.154744848623017], [4.212574095268628, 22.01957809738774, 1.0962570190173306, 6.7995885522781085, 11.495002382132924, 6.762467845835503, 7.949347452427158, 15.666740879237112, 3.161221534943609, 20.782813617628978, 4.875487409120528, -0.8749251419762899, 2.3547914672083, 9.874024401448944, 13.735693430130508, 4.655901370494524, 17.17898754134018, 3.2741434970700065, 3.5820380362836537, 22.48682127654805, 1.1425523022315547, 4.325411437694135, 20.137677115958535, 2.1743740519252337, 8.90740073953142, 15.298136460220098, 5.630610584343083], [2.6660028516276366, 20.007514363264868, 0.6264202438862815, 6.7627214400854125, 11.098333189779094, 7.351146297723533, 6.908241185744601, 15.923099214469028, 3.5629760958857957, 23.974503290736813, 3.580163646675034, -0.4680354310869574, 1.3582712403286634, 11.28039898613436, 13.894529599719316, 4.130694298122288, 18.861213281483074, 3.3739872555068473, 3.12148375262833, 20.319466275019106, 0.599382807999664, 3.323512052437847, 21.476166647322728, 2.417598575473537, 5.903448760637526, 13.905490180345216, 3.402496792103549], [-4.234281957676401, -21.246608082350065, -1.1269045119823937, -6.338040387679609, -10.539466700286011, -6.352040227324573, -5.208749707827768, -14.279978702245199, -3.370814558160677, -22.699584423644804, -2.1686650374145477, -1.4632351784607653, -2.4361999978439823, -9.738383388956583, -14.873546083921795, -3.687007538583661, -19.024560926758138, -3.057315594866138, -3.5455550013603245, -19.826733928944943, -0.3280858151679866, -4.655766798575126, -17.61071090678698, -0.44505501466207203, -6.095509128476654, -13.115599868043782, -4.26665470053336], [2.519019819636516, 20.407632904854534, 0.2798857807854126, 8.245675834542254, 9.312047380373146, 8.204779341607551, 7.121457033071035, 14.986310193401062, 2.6115087758090088, 21.51071906913699, 1.2551944323423598, 0.3899618199275195, 1.0179774918802176, 8.186134708593977, 13.910652728472336, 4.132778295596117, 18.3041434219045, 3.3643105441886947, 5.970051114767905, 20.019836424346394, 2.39977723485016, 3.269788413732174, 20.425275218173436, 0.7247317933216811, 7.285330509636199, 11.35334112320562, 5.514377561211056], [4.0222087632409425, 21.496705188198746, 2.183617432407512, 8.038754030261762, 9.301938771671946, 6.683975826506611, 6.574024895816713, 14.309168675820882, 3.581811398288936, 20.25606676247906, 2.946573436823923, -0.7521945093538664, 0.5546951434586637, 9.09285696280598, 13.747832728322857, 5.215200855826411, 18.15456805262178, -0.10672980579332397, 2.2646983967121392, 18.780346754534914, 1.237565428591713, 4.072640558057674, 17.90357509408862, 0.5600366686994767, 7.617884975386873, 12.956802411807741, 5.21367105671846], [-3.702880860567769, -21.276154940172194, -3.2769895597949605, -9.209162470906879, -9.640668462979402, -6.303537942267133, -6.266051733561618, -15.226586019264584, -2.46175045739104, -21.66062322337268, -3.3472387930153613, 1.5580471252518613, -1.4284846548212904, -10.647618881763027, -13.05385975920369, -5.433729716151717, -17.990364436645855, -2.3957477773739386, -3.6843648756918586, -18.81534617771837, -1.4248757021236953, -3.6995746344272877, -21.25558861307142, -2.79930290605049, -6.455039557847341, -12.991855194472086, -5.5968418117175425], [-4.975561475714618, -20.57519069622238, -1.30759844119815, -8.182273570473242, -10.07648987818683, -4.997103881381322, -9.033348601315087, -14.941816802340625, -0.8595270261379743, -23.907038079477736, -3.7147008435242825, 0.6743308229869768, -1.382855070112599, -10.021412128017516, -12.638095072740269, -3.757803227674412, -17.12419804783242, -2.9029270986054163, -5.075925246007282, -21.485011851393292, -0.689186461335467, -3.4577308431678433, -19.340139355059954, -2.0091881970310936, -7.085266453582628, -13.627935985683237, -3.988185931774795], [3.1507267502966845, 20.958529199633297, 2.312792726060314, 6.701425160835015, 10.941737239251797, 8.006915990041227, 7.466432280916762, 12.335502214361236, 2.4416988751696342, 23.01903925611162, 3.2822411638139455, -1.1154302400223184, 2.257992081658854, 9.716267081585011, 12.359929195576118, 6.754357146527257, 18.718720988167274, 2.6276660235712797, 2.334025527367884, 21.05673178201864, 0.16654571388382794, 5.604963764921053, 19.54094246495282, -0.898929052899699, 5.802464948117318, 11.844039661805935, 5.999551799948685], [2.6338196679980124, 20.63277236848893, 0.7348253356289393, 7.166628905385979, 11.588317860861602, 4.613502713201199, 8.844114234093139, 15.006222656054586, 3.79890316083377, 20.648723242788197, 4.255895710181782, 0.915965321138094, 2.704330715914532, 11.248821922933983, 12.841346945501492, 3.966288056781617, 19.37200097243987, 2.6403056752883782, 4.473463171816945, 20.423334801154514, 1.4340382822931539, 4.892920141335563, 21.08201404906476, 0.45083420786165684, 7.2155217516821075, 12.701613820093185, 5.282610430585818], [-4.501091088495001, -17.358887759779645, -1.2510196099820905, -6.615715649159878, -8.55323162688365, -6.497161022067421, -6.108175442797378, -14.59690129137187, -1.843678421594041, -20.997527754198103, -1.2941579745919434, 1.3952905078357467, -3.3132198106027198, -10.036817719184826, -15.284570833736012, -4.516996886237074, -18.510352125803486, -2.8525998136210027, -4.780482698564608, -18.559919007280445, -1.0942940013001916, -3.420298061985095, -19.201853968971204, -2.103686060483842, -6.4048344083776785, -13.302463166548687, -3.8922964212902196], [-3.3617856681574323, -19.927418864527937, -2.6645533285337484, -7.257582001636361, -9.100803311629768, -7.611235430807851, -8.546923416991772, -16.529233878055088, -1.9681686146689144, -23.562840965444245, -2.8433342558070027, -1.8296484359127414, -0.9778453249016761, -10.116651636155908, -14.737797411327065, -4.061027294456877, -18.438495036390293, -3.2789297852117736, -2.9295233450730094, -22.05431917736536, -1.4297424866310473, -5.108594778647254, -22.459210930213885, -1.8079912129122013, -8.340318717039535, -13.749116754370338, -4.976777235875963], [-3.8093894742747882, -18.727716249812012, -0.24565036361334253, -6.8311201869162295, -10.259861246772356, -7.046468006422106, -6.613667044031493, -14.002619108603948, -2.6415123316517803, -19.163687122132455, -3.784488828505209, -0.43245943328405667, -2.2549422888773036, -8.80940158928949, -15.63188683446593, -3.87049339795798, -18.261750988594734, -3.0446167000118995, -2.934308616783846, -20.78657538818284, -0.7042040495778611, -5.68398858290595, -21.032162545547404, -0.020165915125027314, -6.5686090811183, -14.407389459539527, -5.606463385170902], [4.723960503102018, 20.881349769799446, 1.8855699868542926, 8.416554058447204, 12.112059276938108, 6.911694150511607, 9.574069205613664, 13.924097303397215, 2.974327053775219, 23.0077667843064, 2.732458637597178, 0.21554650013143473, 4.14067319567826, 9.624269401747863, 14.727341894182914, 3.3938742804510085, 18.83198786082682, 2.3880624081251467, 2.732622577389485, 22.31896223762759, 1.1452039628427582, 2.6046037715118295, 22.585444908055578, 3.0090187929394294, 8.033602092913874, 13.200003766039915, 5.558819560455752], [3.106920103706378, 18.90016669470804, 2.32158459347167, 6.895078670853102, 10.473636021204776, 8.420290044106817, 7.170820773415488, 12.523550845983284, 3.7539540182084217, 20.87869684192226, 2.640421403156609, -0.874262908279674, 2.0097793764243903, 7.516137233656311, 15.180634064191555, 3.8840421957160745, 18.59958374163085, 2.6999105222570807, 6.706643039324191, 19.563849553169327, 2.2153037786033165, 4.659259905013143, 20.35663035435694, 1.9313117511121618, 7.676350436111781, 13.585998410279435, 4.050152198941196]], "h2Weight": [[-24.76811688915909, 23.38579594646179, -24.73796044279599, -23.641064223155468, -25.27628362721304, -24.141491402566476, 22.50413663261567, -23.435166402610907, -24.074676551378257, 22.27722791322662, 24.177842076944685, -26.15786817001711, -23.058433642349815, 22.82857547979854, 23.801210131569, 24.17233744907258, -24.301671997015614, -23.35914989459404], [-23.84512845816926, 23.930584529438722, -23.685033914298366, -25.007607032621877, -25.36108995427016, -24.185206899762278, 22.443515296737207, -26.237015003567972, -25.923941679387713, 22.400782754539765, 21.787523216418684, -24.211664117788555, -24.462230854210823, 22.01084734939272, 23.257811418534676, 22.223985738696957, -26.73051159097769, -24.602076890250224], [-21.706189192787562, 19.73486069626613, -20.050552817817618, -19.904200455673262, -22.580974006710008, -21.459778349435823, 20.777823366396788, -19.60094674662266, -18.71604240109433, 20.157086771992635, 20.21981263566257, -21.759064833443485, -23.601475593161002, 18.389243939189214, 18.78980771303046, 20.99526497138496, -22.30584053411096, -20.39053022943416], [-21.918315843622512, 19.957691581325857, -23.242699523502854, -22.80614091153549, -22.20763903830699, -22.81530924888909, 21.7708771439011, -22.57037896383847, -21.45756006904647, 22.12255538662222, 21.743710692207408, -21.449908629247805, -21.078891821294043, 23.277103176129057, 23.22459143121261, 21.281569711666506, -23.19023132395581, -21.61801102633895], [-24.43362684004673, 24.619368687102586, -25.741314263870176, -26.375683752604868, -24.572958254142623, -23.837398787181638, 23.050763404669134, -23.847574067125052, -25.179176055142303, 22.641858824370956, 22.72621990896347, -24.368683168571334, -26.251964852991932, 21.977649973114247, 23.68039181756184, 22.136235999843063, -24.17867788133035, -24.33349581744424], [23.755703025702815, -23.191407731648262, 22.057423492815587, 23.56179835355215, 23.28307457181381, 22.26581346142431, -22.540198359016678, 22.630336243685797, 24.55139035416531, -22.712666066125635, -22.1556110700076, 21.56764826568032, 21.41245743728766, -24.551179137304434, -23.305402667343525, -21.589957157958896, 24.01631529361849, 22.22733320397438], [-21.273623862403763, 19.112837027764815, -20.08931928078198, -21.788084778688383, -20.910116631080335, -18.502347915216397, 20.230587955835393, -21.41940308571787, -19.160145295214054, 17.431847361957043, 17.283539264377772, -20.498521493724354, -19.810357233870004, 19.99799227807392, 19.80121603559613, 21.9292582350578, -19.98700718504228, -20.325919437814562], [-21.086797479051153, 21.69450819774109, -22.75013789576488, -22.024699670859057, -21.972389834903264, -20.40093365522592, 18.48093566856717, -21.669295825457937, -22.22646287261003, 20.740621599506408, 20.470270770538967, -20.80337732501795, -20.509861532148125, 21.009456359095758, 19.298966476747513, 21.17290661260189, -21.52339871817175, -20.587655306966564], [-23.77954333058202, 24.617933567776912, -24.1649456729947, -24.711604323241982, -25.112400710806625, -23.856710310875837, 21.928280774552427, -23.287547821975338, -24.65056853775636, 23.23331347085807, 22.71971733512652, -24.96048647121192, -24.598454373862133, 22.002431611562532, 23.51890364597669, 24.13973910973207, -27.17834689286353, -24.985206416787197], [26.56186249154893, -26.447459014460794, 25.290836234083603, 25.904690153397684, 26.959927035653624, 26.049913931658246, -24.18345452738525, 24.58687807315567, 24.867697092235034, -25.20921236060259, -26.365955804339166, 25.735109511108558, 26.66396289278169, -23.220846214485658, -25.465474267075212, -24.572436168778665, 26.946776835919675, 24.326874264527536]], "outputWeight": [[2.152814080042214, 2.5080534813365256, 2.9562496492788197, 4.749469519187576, 2.749906187170045, -4.223446635732305, 2.650601402642777, 3.3505227232404557, 2.9457608185246986, -2.534735041553075], [-0.8197504703843175, -3.237524624402429, -2.6386951454081604, -0.5305640912081429, -2.690260231847734, 2.723133283990345, -2.77371505800856, -2.3494744697890604, -1.3068302612347327, 2.4057949406736396], [3.5111170880599807, 3.51271039935849, 3.6015641586439022, 2.533868340605051, 3.310156285012653, -2.031417163859508, 2.9331442459906003, 2.399019109838122, 3.7235841817993998, -3.7423137046854644], [0.8025050055551074, 1.503718710442956, 1.845470192355708, -0.788591333050421, 1.8621111521014129, -2.3752823190456733, 1.940048205744779, 0.6054427503696515, 0.3640323503377023, -2.3785426666950493], [-8.325304089655662, -8.50052222554125, -6.173173728143828, -8.45136179201028, -6.847864358719107, 7.361193535709351, -5.770824674317993, -6.54021312602246, -6.97007001909986, 8.057661877594052], [4.123908414763313, 3.6241224027728154, 4.7300480575934865, 3.3544454724921087, 2.8084361802905287, -2.5389029311533355, 1.705271957046064, 3.6535219605795404, 4.42627160542492, -3.8154414906669016], [2.544570519591851, 3.015456240691183, 1.898599650756925, 2.330407878869881, 2.1512531323987325, -2.548187765753412, 2.073925399859623, 0.6494211225384638, 4.020692095827018, -3.392804447336676], [3.7787221353792457, 4.360318912055236, 3.469523539290953, 5.004329908966024, 3.7468355343547985, -2.795590960532811, 2.919332603147513, 3.788264958899518, 2.7750448054595913, -3.1687987386441123], [3.99427277121153, 2.6848400588933257, 1.7798086850270338, 4.379163240509144, 3.4109392044776823, -3.279292147065299, 4.100642218084239, 4.073729393623161, 3.039770968688055, -2.7014360227951855]], "h1Bias": [[25.689249922447363], [-24.54982499388005], [26.375261760011426], [25.060962873263307], [27.742861089647555], [24.796614568288977], [-24.919989093112463], [25.8098308818739], [25.99826167703702], [-24.011882658265357], [-25.339182815991716], [25.305756697409777], [24.600503898651937], [-23.651863211115913], [-24.599187697647693], [-24.893781984675655], [26.58716822706286], [25.04487043897532]], "h2Bias": [[-24.898858916281135], [-24.209009368184656], [-21.697868120753107], [-23.718744678537426], [-24.910347051679235], [22.564891669881405], [-22.391924392189306], [-22.55562386185959], [-24.969108391345866], [26.81404626904455]], "outputBias": [[-2.0474488284637307], [0.6029346268878691], [-3.1336080794035372], [-0.9644175915001364], [5.87337736712895], [-3.711434439423276], [-1.864389319078959], [-3.2129891019929806], [-3.891777901786684]]}